digraph Tree {
node [shape=box] ;
0 [label="X[3] <= 0.5\ngini = 0.465\nsamples = 1209\nvalue = [276, 51, 837, 45]"] ;
1 [label="gini = 0.0\nsamples = 403\nvalue = [0, 0, 403, 0]"] ;
0 -> 1 [labeldistance=2.5, labelangle=45, headlabel="True"] ;
2 [label="X[5] <= 0.5\ngini = 0.586\nsamples = 806\nvalue = [276, 51, 434, 45]"] ;
0 -> 2 [labeldistance=2.5, labelangle=-45, headlabel="False"] ;
3 [label="X[1] <= 2.5\ngini = 0.619\nsamples = 281\nvalue = [155, 21, 60, 45]"] ;
2 -> 3 ;
4 [label="X[0] <= 0.5\ngini = 0.606\nsamples = 214\nvalue = [122, 21, 26, 45]"] ;
3 -> 4 ;
5 [label="X[2] <= 0.5\ngini = 0.103\nsamples = 55\nvalue = [52, 0, 3, 0]"] ;
4 -> 5 ;
6 [label="X[4] <= 1.5\ngini = 0.32\nsamples = 15\nvalue = [12, 0, 3, 0]"] ;
5 -> 6 ;
7 [label="gini = 0.0\nsamples = 11\nvalue = [11, 0, 0, 0]"] ;
6 -> 7 ;
8 [label="X[3] <= 1.5\ngini = 0.375\nsamples = 4\nvalue = [1, 0, 3, 0]"] ;
6 -> 8 ;
9 [label="gini = 0.0\nsamples = 1\nvalue = [1, 0, 0, 0]"] ;
8 -> 9 ;
10 [label="gini = 0.0\nsamples = 3\nvalue = [0, 0, 3, 0]"] ;
8 -> 10 ;
11 [label="gini = 0.0\nsamples = 40\nvalue = [40, 0, 0, 0]"] ;
5 -> 11 ;
12 [label="X[0] <= 2.5\ngini = 0.688\nsamples = 159\nvalue = [70, 21, 23, 45]"] ;
4 -> 12 ;
13 [label="X[1] <= 0.5\ngini = 0.669\nsamples = 105\nvalue = [34, 21, 5, 45]"] ;
12 -> 13 ;
14 [label="X[0] <= 1.5\ngini = 0.372\nsamples = 34\nvalue = [26, 0, 1, 7]"] ;
13 -> 14 ;
15 [label="X[4] <= 1.5\ngini = 0.498\nsamples = 15\nvalue = [8, 0, 0, 7]"] ;
14 -> 15 ;
16 [label="X[4] <= 0.5\ngini = 0.346\nsamples = 9\nvalue = [2, 0, 0, 7]"] ;
15 -> 16 ;
17 [label="gini = 0.0\nsamples = 5\nvalue = [0, 0, 0, 5]"] ;
16 -> 17 ;
18 [label="X[2] <= 1.5\ngini = 0.5\nsamples = 4\nvalue = [2, 0, 0, 2]"] ;
16 -> 18 ;
19 [label="gini = 0.0\nsamples = 2\nvalue = [2, 0, 0, 0]"] ;
18 -> 19 ;
20 [label="gini = 0.0\nsamples = 2\nvalue = [0, 0, 0, 2]"] ;
18 -> 20 ;
21 [label="gini = 0.0\nsamples = 6\nvalue = [6, 0, 0, 0]"] ;
15 -> 21 ;
22 [label="X[2] <= 0.5\ngini = 0.1\nsamples = 19\nvalue = [18, 0, 1, 0]"] ;
14 -> 22 ;
23 [label="X[4] <= 1.5\ngini = 0.375\nsamples = 4\nvalue = [3, 0, 1, 0]"] ;
22 -> 23 ;
24 [label="gini = 0.0\nsamples = 3\nvalue = [3, 0, 0, 0]"] ;
23 -> 24 ;
25 [label="gini = 0.0\nsamples = 1\nvalue = [0, 0, 1, 0]"] ;
23 -> 25 ;
26 [label="gini = 0.0\nsamples = 15\nvalue = [15, 0, 0, 0]"] ;
22 -> 26 ;
27 [label="X[4] <= 1.5\ngini = 0.61\nsamples = 71\nvalue = [8, 21, 4, 38]"] ;
13 -> 27 ;
28 [label="X[2] <= 0.5\ngini = 0.302\nsamples = 46\nvalue = [3, 5, 0, 38]"] ;
27 -> 28 ;
29 [label="X[4] <= 0.5\ngini = 0.656\nsamples = 8\nvalue = [2, 3, 0, 3]"] ;
28 -> 29 ;
30 [label="gini = 0.0\nsamples = 3\nvalue = [0, 0, 0, 3]"] ;
29 -> 30 ;
31 [label="X[1] <= 1.5\ngini = 0.48\nsamples = 5\nvalue = [2, 3, 0, 0]"] ;
29 -> 31 ;
32 [label="gini = 0.0\nsamples = 3\nvalue = [0, 3, 0, 0]"] ;
31 -> 32 ;
33 [label="gini = 0.0\nsamples = 2\nvalue = [2, 0, 0, 0]"] ;
31 -> 33 ;
34 [label="X[2] <= 1.5\ngini = 0.148\nsamples = 38\nvalue = [1, 2, 0, 35]"] ;
28 -> 34 ;
35 [label="X[4] <= 0.5\ngini = 0.403\nsamples = 12\nvalue = [1, 2, 0, 9]"] ;
34 -> 35 ;
36 [label="gini = 0.0\nsamples = 6\nvalue = [0, 0, 0, 6]"] ;
35 -> 36 ;
37 [label="X[3] <= 1.5\ngini = 0.611\nsamples = 6\nvalue = [1, 2, 0, 3]"] ;
35 -> 37 ;
38 [label="X[0] <= 1.5\ngini = 0.444\nsamples = 3\nvalue = [1, 2, 0, 0]"] ;
37 -> 38 ;
39 [label="gini = 0.0\nsamples = 2\nvalue = [0, 2, 0, 0]"] ;
38 -> 39 ;
40 [label="gini = 0.0\nsamples = 1\nvalue = [1, 0, 0, 0]"] ;
38 -> 40 ;
41 [label="gini = 0.0\nsamples = 3\nvalue = [0, 0, 0, 3]"] ;
37 -> 41 ;
42 [label="gini = 0.0\nsamples = 26\nvalue = [0, 0, 0, 26]"] ;
34 -> 42 ;
43 [label="X[2] <= 0.5\ngini = 0.525\nsamples = 25\nvalue = [5, 16, 4, 0]"] ;
27 -> 43 ;
44 [label="X[3] <= 1.5\ngini = 0.571\nsamples = 7\nvalue = [1, 2, 4, 0]"] ;
43 -> 44 ;
45 [label="X[0] <= 1.5\ngini = 0.444\nsamples = 3\nvalue = [1, 2, 0, 0]"] ;
44 -> 45 ;
46 [label="gini = 0.0\nsamples = 2\nvalue = [0, 2, 0, 0]"] ;
45 -> 46 ;
47 [label="gini = 0.0\nsamples = 1\nvalue = [1, 0, 0, 0]"] ;
45 -> 47 ;
48 [label="gini = 0.0\nsamples = 4\nvalue = [0, 0, 4, 0]"] ;
44 -> 48 ;
49 [label="X[0] <= 1.5\ngini = 0.346\nsamples = 18\nvalue = [4, 14, 0, 0]"] ;
43 -> 49 ;
50 [label="gini = 0.0\nsamples = 10\nvalue = [0, 10, 0, 0]"] ;
49 -> 50 ;
51 [label="X[1] <= 1.5\ngini = 0.5\nsamples = 8\nvalue = [4, 4, 0, 0]"] ;
49 -> 51 ;
52 [label="gini = 0.0\nsamples = 4\nvalue = [0, 4, 0, 0]"] ;
51 -> 52 ;
53 [label="gini = 0.0\nsamples = 4\nvalue = [4, 0, 0, 0]"] ;
51 -> 53 ;
54 [label="X[1] <= 0.5\ngini = 0.444\nsamples = 54\nvalue = [36, 0, 18, 0]"] ;
12 -> 54 ;
55 [label="gini = 0.0\nsamples = 17\nvalue = [0, 0, 17, 0]"] ;
54 -> 55 ;
56 [label="X[2] <= 0.5\ngini = 0.053\nsamples = 37\nvalue = [36, 0, 1, 0]"] ;
54 -> 56 ;
57 [label="X[4] <= 1.5\ngini = 0.18\nsamples = 10\nvalue = [9, 0, 1, 0]"] ;
56 -> 57 ;
58 [label="gini = 0.0\nsamples = 8\nvalue = [8, 0, 0, 0]"] ;
57 -> 58 ;
59 [label="X[3] <= 1.5\ngini = 0.5\nsamples = 2\nvalue = [1, 0, 1, 0]"] ;
57 -> 59 ;
60 [label="gini = 0.0\nsamples = 1\nvalue = [1, 0, 0, 0]"] ;
59 -> 60 ;
61 [label="gini = 0.0\nsamples = 1\nvalue = [0, 0, 1, 0]"] ;
59 -> 61 ;
62 [label="gini = 0.0\nsamples = 27\nvalue = [27, 0, 0, 0]"] ;
56 -> 62 ;
63 [label="X[0] <= 0.5\ngini = 0.5\nsamples = 67\nvalue = [33, 0, 34, 0]"] ;
3 -> 63 ;
64 [label="gini = 0.0\nsamples = 17\nvalue = [0, 0, 17, 0]"] ;
63 -> 64 ;
65 [label="X[0] <= 2.5\ngini = 0.449\nsamples = 50\nvalue = [33, 0, 17, 0]"] ;
63 -> 65 ;
66 [label="X[2] <= 0.5\ngini = 0.057\nsamples = 34\nvalue = [33, 0, 1, 0]"] ;
65 -> 66 ;
67 [label="X[4] <= 1.5\ngini = 0.245\nsamples = 7\nvalue = [6, 0, 1, 0]"] ;
66 -> 67 ;
68 [label="gini = 0.0\nsamples = 6\nvalue = [6, 0, 0, 0]"] ;
67 -> 68 ;
69 [label="gini = 0.0\nsamples = 1\nvalue = [0, 0, 1, 0]"] ;
67 -> 69 ;
70 [label="gini = 0.0\nsamples = 27\nvalue = [27, 0, 0, 0]"] ;
66 -> 70 ;
71 [label="gini = 0.0\nsamples = 16\nvalue = [0, 0, 16, 0]"] ;
65 -> 71 ;
72 [label="X[5] <= 1.5\ngini = 0.436\nsamples = 525\nvalue = [121, 30, 374, 0]"] ;
2 -> 72 ;
73 [label="gini = 0.0\nsamples = 264\nvalue = [0, 0, 264, 0]"] ;
72 -> 73 ;
74 [label="X[4] <= 1.5\ngini = 0.594\nsamples = 261\nvalue = [121, 30, 110, 0]"] ;
72 -> 74 ;
75 [label="X[1] <= 2.5\ngini = 0.587\nsamples = 172\nvalue = [96, 30, 46, 0]"] ;
74 -> 75 ;
76 [label="X[0] <= 2.5\ngini = 0.548\nsamples = 134\nvalue = [82, 30, 22, 0]"] ;
75 -> 76 ;
77 [label="X[0] <= 0.5\ngini = 0.505\nsamples = 101\nvalue = [64, 30, 7, 0]"] ;
76 -> 77 ;
78 [label="X[2] <= 0.5\ngini = 0.251\nsamples = 34\nvalue = [29, 0, 5, 0]"] ;
77 -> 78 ;
79 [label="X[4] <= 0.5\ngini = 0.494\nsamples = 9\nvalue = [5, 0, 4, 0]"] ;
78 -> 79 ;
80 [label="gini = 0.0\nsamples = 5\nvalue = [5, 0, 0, 0]"] ;
79 -> 80 ;
81 [label="gini = 0.0\nsamples = 4\nvalue = [0, 0, 4, 0]"] ;
79 -> 81 ;
82 [label="X[2] <= 1.5\ngini = 0.077\nsamples = 25\nvalue = [24, 0, 1, 0]"] ;
78 -> 82 ;
83 [label="X[4] <= 0.5\ngini = 0.198\nsamples = 9\nvalue = [8, 0, 1, 0]"] ;
82 -> 83 ;
84 [label="gini = 0.0\nsamples = 6\nvalue = [6, 0, 0, 0]"] ;
83 -> 84 ;
85 [label="X[3] <= 1.5\ngini = 0.444\nsamples = 3\nvalue = [2, 0, 1, 0]"] ;
83 -> 85 ;
86 [label="gini = 0.0\nsamples = 1\nvalue = [0, 0, 1, 0]"] ;
85 -> 86 ;
87 [label="gini = 0.0\nsamples = 2\nvalue = [2, 0, 0, 0]"] ;
85 -> 87 ;
88 [label="gini = 0.0\nsamples = 16\nvalue = [16, 0, 0, 0]"] ;
82 -> 88 ;
89 [label="X[1] <= 0.5\ngini = 0.526\nsamples = 67\nvalue = [35, 30, 2, 0]"] ;
77 -> 89 ;
90 [label="X[4] <= 0.5\ngini = 0.188\nsamples = 19\nvalue = [17, 0, 2, 0]"] ;
89 -> 90 ;
91 [label="gini = 0.0\nsamples = 12\nvalue = [12, 0, 0, 0]"] ;
90 -> 91 ;
92 [label="X[3] <= 1.5\ngini = 0.408\nsamples = 7\nvalue = [5, 0, 2, 0]"] ;
90 -> 92 ;
93 [label="X[0] <= 1.5\ngini = 0.5\nsamples = 4\nvalue = [2, 0, 2, 0]"] ;
92 -> 93 ;
94 [label="gini = 0.0\nsamples = 2\nvalue = [2, 0, 0, 0]"] ;
93 -> 94 ;
95 [label="gini = 0.0\nsamples = 2\nvalue = [0, 0, 2, 0]"] ;
93 -> 95 ;
96 [label="gini = 0.0\nsamples = 3\nvalue = [3, 0, 0, 0]"] ;
92 -> 96 ;
97 [label="X[1] <= 1.5\ngini = 0.469\nsamples = 48\nvalue = [18, 30, 0, 0]"] ;
89 -> 97 ;
98 [label="X[2] <= 1.5\ngini = 0.219\nsamples = 24\nvalue = [3, 21, 0, 0]"] ;
97 -> 98 ;
99 [label="X[4] <= 0.5\ngini = 0.42\nsamples = 10\nvalue = [3, 7, 0, 0]"] ;
98 -> 99 ;
100 [label="gini = 0.0\nsamples = 6\nvalue = [0, 6, 0, 0]"] ;
99 -> 100 ;
101 [label="X[2] <= 0.5\ngini = 0.375\nsamples = 4\nvalue = [3, 1, 0, 0]"] ;
99 -> 101 ;
102 [label="gini = 0.0\nsamples = 2\nvalue = [2, 0, 0, 0]"] ;
101 -> 102 ;
103 [label="X[0] <= 1.5\ngini = 0.5\nsamples = 2\nvalue = [1, 1, 0, 0]"] ;
101 -> 103 ;
104 [label="gini = 0.0\nsamples = 1\nvalue = [0, 1, 0, 0]"] ;
103 -> 104 ;
105 [label="gini = 0.0\nsamples = 1\nvalue = [1, 0, 0, 0]"] ;
103 -> 105 ;
106 [label="gini = 0.0\nsamples = 14\nvalue = [0, 14, 0, 0]"] ;
98 -> 106 ;
107 [label="X[0] <= 1.5\ngini = 0.469\nsamples = 24\nvalue = [15, 9, 0, 0]"] ;
97 -> 107 ;
108 [label="X[4] <= 0.5\ngini = 0.375\nsamples = 12\nvalue = [3, 9, 0, 0]"] ;
107 -> 108 ;
109 [label="gini = 0.0\nsamples = 5\nvalue = [0, 5, 0, 0]"] ;
108 -> 109 ;
110 [label="X[2] <= 1.5\ngini = 0.49\nsamples = 7\nvalue = [3, 4, 0, 0]"] ;
108 -> 110 ;
111 [label="X[2] <= 0.5\ngini = 0.375\nsamples = 4\nvalue = [3, 1, 0, 0]"] ;
110 -> 111 ;
112 [label="gini = 0.0\nsamples = 2\nvalue = [2, 0, 0, 0]"] ;
111 -> 112 ;
113 [label="X[3] <= 1.5\ngini = 0.5\nsamples = 2\nvalue = [1, 1, 0, 0]"] ;
111 -> 113 ;
114 [label="gini = 0.0\nsamples = 1\nvalue = [1, 0, 0, 0]"] ;
113 -> 114 ;
115 [label="gini = 0.0\nsamples = 1\nvalue = [0, 1, 0, 0]"] ;
113 -> 115 ;
116 [label="gini = 0.0\nsamples = 3\nvalue = [0, 3, 0, 0]"] ;
110 -> 116 ;
117 [label="gini = 0.0\nsamples = 12\nvalue = [12, 0, 0, 0]"] ;
107 -> 117 ;
118 [label="X[1] <= 0.5\ngini = 0.496\nsamples = 33\nvalue = [18, 0, 15, 0]"] ;
76 -> 118 ;
119 [label="gini = 0.0\nsamples = 10\nvalue = [0, 0, 10, 0]"] ;
118 -> 119 ;
120 [label="X[4] <= 0.5\ngini = 0.34\nsamples = 23\nvalue = [18, 0, 5, 0]"] ;
118 -> 120 ;
121 [label="gini = 0.0\nsamples = 11\nvalue = [11, 0, 0, 0]"] ;
120 -> 121 ;
122 [label="X[2] <= 1.5\ngini = 0.486\nsamples = 12\nvalue = [7, 0, 5, 0]"] ;
120 -> 122 ;
123 [label="X[3] <= 1.5\ngini = 0.278\nsamples = 6\nvalue = [1, 0, 5, 0]"] ;
122 -> 123 ;
124 [label="gini = 0.0\nsamples = 4\nvalue = [0, 0, 4, 0]"] ;
123 -> 124 ;
125 [label="X[2] <= 0.5\ngini = 0.5\nsamples = 2\nvalue = [1, 0, 1, 0]"] ;
123 -> 125 ;
126 [label="gini = 0.0\nsamples = 1\nvalue = [0, 0, 1, 0]"] ;
125 -> 126 ;
127 [label="gini = 0.0\nsamples = 1\nvalue = [1, 0, 0, 0]"] ;
125 -> 127 ;
128 [label="gini = 0.0\nsamples = 6\nvalue = [6, 0, 0, 0]"] ;
122 -> 128 ;
129 [label="X[0] <= 0.5\ngini = 0.465\nsamples = 38\nvalue = [14, 0, 24, 0]"] ;
75 -> 129 ;
130 [label="gini = 0.0\nsamples = 10\nvalue = [0, 0, 10, 0]"] ;
129 -> 130 ;
131 [label="X[0] <= 2.5\ngini = 0.5\nsamples = 28\nvalue = [14, 0, 14, 0]"] ;
129 -> 131 ;
132 [label="X[4] <= 0.5\ngini = 0.42\nsamples = 20\nvalue = [14, 0, 6, 0]"] ;
131 -> 132 ;
133 [label="gini = 0.0\nsamples = 10\nvalue = [10, 0, 0, 0]"] ;
132 -> 133 ;
134 [label="X[2] <= 1.5\ngini = 0.48\nsamples = 10\nvalue = [4, 0, 6, 0]"] ;
132 -> 134 ;
135 [label="X[2] <= 0.5\ngini = 0.245\nsamples = 7\nvalue = [1, 0, 6, 0]"] ;
134 -> 135 ;
136 [label="gini = 0.0\nsamples = 4\nvalue = [0, 0, 4, 0]"] ;
135 -> 136 ;
137 [label="X[3] <= 1.5\ngini = 0.444\nsamples = 3\nvalue = [1, 0, 2, 0]"] ;
135 -> 137 ;
138 [label="gini = 0.0\nsamples = 2\nvalue = [0, 0, 2, 0]"] ;
137 -> 138 ;
139 [label="gini = 0.0\nsamples = 1\nvalue = [1, 0, 0, 0]"] ;
137 -> 139 ;
140 [label="gini = 0.0\nsamples = 3\nvalue = [3, 0, 0, 0]"] ;
134 -> 140 ;
141 [label="gini = 0.0\nsamples = 8\nvalue = [0, 0, 8, 0]"] ;
131 -> 141 ;
142 [label="X[0] <= 2.5\ngini = 0.404\nsamples = 89\nvalue = [25, 0, 64, 0]"] ;
74 -> 142 ;
143 [label="X[0] <= 0.5\ngini = 0.473\nsamples = 65\nvalue = [25, 0, 40, 0]"] ;
142 -> 143 ;
144 [label="gini = 0.0\nsamples = 22\nvalue = [0, 0, 22, 0]"] ;
143 -> 144 ;
145 [label="X[1] <= 2.5\ngini = 0.487\nsamples = 43\nvalue = [25, 0, 18, 0]"] ;
143 -> 145 ;
146 [label="X[1] <= 0.5\ngini = 0.367\nsamples = 33\nvalue = [25, 0, 8, 0]"] ;
145 -> 146 ;
147 [label="X[0] <= 1.5\ngini = 0.5\nsamples = 12\nvalue = [6, 0, 6, 0]"] ;
146 -> 147 ;
148 [label="gini = 0.0\nsamples = 6\nvalue = [6, 0, 0, 0]"] ;
147 -> 148 ;
149 [label="gini = 0.0\nsamples = 6\nvalue = [0, 0, 6, 0]"] ;
147 -> 149 ;
150 [label="X[2] <= 0.5\ngini = 0.172\nsamples = 21\nvalue = [19, 0, 2, 0]"] ;
146 -> 150 ;
151 [label="X[3] <= 1.5\ngini = 0.444\nsamples = 6\nvalue = [4, 0, 2, 0]"] ;
150 -> 151 ;
152 [label="gini = 0.0\nsamples = 4\nvalue = [4, 0, 0, 0]"] ;
151 -> 152 ;
153 [label="gini = 0.0\nsamples = 2\nvalue = [0, 0, 2, 0]"] ;
151 -> 153 ;
154 [label="gini = 0.0\nsamples = 15\nvalue = [15, 0, 0, 0]"] ;
150 -> 154 ;
155 [label="gini = 0.0\nsamples = 10\nvalue = [0, 0, 10, 0]"] ;
145 -> 155 ;
156 [label="gini = 0.0\nsamples = 24\nvalue = [0, 0, 24, 0]"] ;
142 -> 156 ;
}
